digraph Tree {
node [shape=box] ;
0 [label="X[3] <= 0.5\nentropy = 1.204\nsamples = 1209\nvalue = [269, 48, 847, 45]"] ;
1 [label="entropy = 0.0\nsamples = 404\nvalue = [0, 0, 404, 0]"] ;
0 -> 1 [labeldistance=2.5, labelangle=45, headlabel="True"] ;
2 [label="X[5] <= 0.5\nentropy = 1.478\nsamples = 805\nvalue = [269, 48, 443, 45]"] ;
0 -> 2 [labeldistance=2.5, labelangle=-45, headlabel="False"] ;
3 [label="X[0] <= 2.5\nentropy = 1.691\nsamples = 271\nvalue = [144, 22, 60, 45]"] ;
2 -> 3 ;
4 [label="entropy = 1.688\nsamples = 208\nvalue = [113, 22, 28, 45]"] ;
3 -> 4 ;
5 [label="entropy = 1.0\nsamples = 63\nvalue = [31, 0, 32, 0]"] ;
3 -> 5 ;
6 [label="X[5] <= 1.5\nentropy = 1.047\nsamples = 534\nvalue = [125, 26, 383, 0]"] ;
2 -> 6 ;
7 [label="entropy = 0.0\nsamples = 268\nvalue = [0, 0, 268, 0]"] ;
6 -> 7 ;
8 [label="entropy = 1.363\nsamples = 266\nvalue = [125, 26, 115, 0]"] ;
6 -> 8 ;
}